<?xml version="1.0"?>
<opencv_storage>
<stage18>
  <maxWeakCount>71</maxWeakCount>
  <stageThreshold>-7.6273590326309204e-01</stageThreshold>
  <weakClassifiers>
    <_>
      <internalNodes>
        0 -1 28088 -1.2408374249935150e-01</internalNodes>
      <leafValues>
        5.2927261590957642e-01 8.0213904380798340e-02</leafValues></_>
    <_>
      <internalNodes>
        0 -1 13937 4.9514677375555038e-03</internalNodes>
      <leafValues>
        -1.5588805079460144e-01 2.1541699767112732e-01</leafValues></_>
    <_>
      <internalNodes>
        0 -1 5111 -1.3068726062774658e+00</internalNodes>
      <leafValues>
        2.9860571026802063e-01 -1.2096886336803436e-01</leafValues></_>
    <_>
      <internalNodes>
        0 -1 19871 -9.2478137230500579e-04</internalNodes>
      <leafValues>
        -2.7617549896240234e-01 1.1224579811096191e-01</leafValues></_>
    <_>
      <internalNodes>
        0 -1 13555 1.2407868169248104e-02</internalNodes>
      <leafValues>
        -2.1870701014995575e-01 1.4204743504524231e-01</leafValues></_>
    <_>
      <internalNodes>
        0 -1 28733 -3.3649437129497528e-02</internalNodes>
      <leafValues>
        4.5165005326271057e-01 -7.0222869515419006e-02</leafValues></_>
    <_>
      <internalNodes>
        0 -1 19092 1.8560167402029037e-02</internalNodes>
      <leafValues>
        -1.1093430221080780e-01 2.4638316035270691e-01</leafValues></_>
    <_>
      <internalNodes>
        0 -1 375 -6.1999149620532990e-03</internalNodes>
      <leafValues>
        1.4429146051406860e-01 -1.6586218774318695e-01</leafValues></_>
    <_>
      <internalNodes>
        0 -1 5002 -2.3977393284440041e-02</internalNodes>
      <leafValues>
        1.6922958195209503e-01 -1.6087119281291962e-01</leafValues></_>
    <_>
      <internalNodes>
        0 -1 4307 1.2932222336530685e-02</internalNodes>
      <leafValues>
        6.7988917231559753e-02 -3.7888947129249573e-01</leafValues></_>
    <_>
      <internalNodes>
        0 -1 13289 1.5764830633997917e-02</internalNodes>
      <leafValues>
        6.1750162392854691e-02 -3.9614301919937134e-01</leafValues></_>
    <_>
      <internalNodes>
        0 -1 16880 -4.1394095867872238e-02</internalNodes>
      <leafValues>
        4.3732064962387085e-01 -5.8254145085811615e-02</leafValues></_>
    <_>
      <internalNodes>
        0 -1 13322 2.0416050683706999e-03</internalNodes>
      <leafValues>
        -1.5405963361263275e-01 1.9800642132759094e-01</leafValues></_>
    <_>
      <internalNodes>
        0 -1 28196 -1.1227391660213470e-03</internalNodes>
      <leafValues>
        -2.2239573299884796e-01 1.0949122905731201e-01</leafValues></_>
    <_>
      <internalNodes>
        0 -1 27867 1.1589816771447659e-02</internalNodes>
      <leafValues>
        7.3366366326808929e-02 -4.1230973601341248e-01</leafValues></_>
    <_>
      <internalNodes>
        0 -1 20792 -5.2391574718058109e-04</internalNodes>
      <leafValues>
        -2.4376931786537170e-01 8.3849750459194183e-02</leafValues></_>
    <_>
      <internalNodes>
        0 -1 22455 2.2913764417171478e-01</internalNodes>
      <leafValues>
        -3.0246995389461517e-02 8.2386660575866699e-01</leafValues></_>
    <_>
      <internalNodes>
        0 -1 5897 2.7950098738074303e-03</internalNodes>
      <leafValues>
        -1.1884246766567230e-01 1.8547667562961578e-01</leafValues></_>
    <_>
      <internalNodes>
        0 -1 28900 -5.8194604935124516e-04</internalNodes>
      <leafValues>
        -2.3992803692817688e-01 1.0067573934793472e-01</leafValues></_>
    <_>
      <internalNodes>
        0 -1 27828 -1.1916037183254957e-03</internalNodes>
      <leafValues>
        -3.0714610219001770e-01 9.2273488640785217e-02</leafValues></_>
    <_>
      <internalNodes>
        0 -1 26341 1.6588808968663216e-02</internalNodes>
      <leafValues>
        -1.1118282377719879e-01 2.3588724434375763e-01</leafValues></_>
    <_>
      <internalNodes>
        0 -1 25923 1.2511674314737320e-02</internalNodes>
      <leafValues>
        8.9443460106849670e-02 -2.5789937376976013e-01</leafValues></_>
    <_>
      <internalNodes>
        0 -1 26849 3.1047533266246319e-03</internalNodes>
      <leafValues>
        1.6131067276000977e-01 -1.4224542677402496e-01</leafValues></_>
    <_>
      <internalNodes>
        0 -1 7457 -9.0989721938967705e-03</internalNodes>
      <leafValues>
        2.4579636752605438e-01 -8.9296832680702209e-02</leafValues></_>
    <_>
      <internalNodes>
        0 -1 5376 3.7786826491355896e-02</internalNodes>
      <leafValues>
        -1.1255075037479401e-01 2.4607823789119720e-01</leafValues></_>
    <_>
      <internalNodes>
        0 -1 13361 1.4624717645347118e-02</internalNodes>
      <leafValues>
        -1.0555516183376312e-01 2.3899309337139130e-01</leafValues></_>
    <_>
      <internalNodes>
        0 -1 23403 2.0612847059965134e-02</internalNodes>
      <leafValues>
        -7.4909739196300507e-02 3.6644080281257629e-01</leafValues></_>
    <_>
      <internalNodes>
        0 -1 8504 1.6004888340830803e-02</internalNodes>
      <leafValues>
        -9.7660176455974579e-02 2.3198592662811279e-01</leafValues></_>
    <_>
      <internalNodes>
        0 -1 26148 -1.8443864537402987e-03</internalNodes>
      <leafValues>
        -3.8670536875724792e-01 6.1321977525949478e-02</leafValues></_>
    <_>
      <internalNodes>
        0 -1 28865 -4.9537391168996692e-04</internalNodes>
      <leafValues>
        1.4784903824329376e-01 -1.4442746341228485e-01</leafValues></_>
    <_>
      <internalNodes>
        0 -1 13568 -1.2926297262310982e-02</internalNodes>
      <leafValues>
        -5.9719330072402954e-01 3.3561475574970245e-02</leafValues></_>
    <_>
      <internalNodes>
        0 -1 17184 -2.7902023866772652e-03</internalNodes>
      <leafValues>
        2.5514143705368042e-01 -8.2261323928833008e-02</leafValues></_>
    <_>
      <internalNodes>
        0 -1 441 9.7852915525436401e-02</internalNodes>
      <leafValues>
        4.7503340989351273e-02 -4.5740878582000732e-01</leafValues></_>
    <_>
      <internalNodes>
        0 -1 14917 -1.2059028813382611e-04</internalNodes>
      <leafValues>
        1.1570278555154800e-01 -1.8213877081871033e-01</leafValues></_>
    <_>
      <internalNodes>
        0 -1 19047 1.9481708295643330e-03</internalNodes>
      <leafValues>
        7.1740038692951202e-02 -3.5844513773918152e-01</leafValues></_>
    <_>
      <internalNodes>
        0 -1 17102 4.5684687793254852e-03</internalNodes>
      <leafValues>
        -2.1901164948940277e-01 1.1234317719936371e-01</leafValues></_>
    <_>
      <internalNodes>
        0 -1 16977 6.4295362681150436e-03</internalNodes>
      <leafValues>
        -1.0438884049654007e-01 2.2153703868389130e-01</leafValues></_>
    <_>
      <internalNodes>
        0 -1 16945 -5.1990762352943420e-02</internalNodes>
      <leafValues>
        -6.9285553693771362e-01 3.2809499651193619e-02</leafValues></_>
    <_>
      <internalNodes>
        0 -1 14417 -8.0474495887756348e-02</internalNodes>
      <leafValues>
        -5.3431808948516846e-01 3.4322623163461685e-02</leafValues></_>
    <_>
      <internalNodes>
        0 -1 12745 -3.5117469727993011e-02</internalNodes>
      <leafValues>
        2.4782249331474304e-01 -9.3155220150947571e-02</leafValues></_>
    <_>
      <internalNodes>
        0 -1 9342 3.7644132971763611e-03</internalNodes>
      <leafValues>
        6.8972542881965637e-02 -3.5202404856681824e-01</leafValues></_>
    <_>
      <internalNodes>
        0 -1 16091 1.5608018264174461e-02</internalNodes>
      <leafValues>
        4.0355529636144638e-02 -5.1180320978164673e-01</leafValues></_>
    <_>
      <internalNodes>
        0 -1 11262 -1.8472183495759964e-02</internalNodes>
      <leafValues>
        1.7520661652088165e-01 -1.1742650717496872e-01</leafValues></_>
    <_>
      <internalNodes>
        0 -1 23535 3.5087326541543007e-03</internalNodes>
      <leafValues>
        9.0570576488971710e-02 -2.5022807717323303e-01</leafValues></_>
    <_>
      <internalNodes>
        0 -1 14101 -4.6316929161548615e-02</internalNodes>
      <leafValues>
        5.0936359167098999e-01 -4.5568361878395081e-02</leafValues></_>
    <_>
      <internalNodes>
        0 -1 23537 5.1596231060102582e-04</internalNodes>
      <leafValues>
        1.4827691018581390e-01 -1.4620038866996765e-01</leafValues></_>
    <_>
      <internalNodes>
        0 -1 10728 -2.2680532187223434e-02</internalNodes>
      <leafValues>
        1.9951272010803223e-01 -1.0518623888492584e-01</leafValues></_>
    <_>
      <internalNodes>
        0 -1 5511 -8.0084905028343201e-02</internalNodes>
      <leafValues>
        1.3943761587142944e-01 -1.6077773272991180e-01</leafValues></_>
    <_>
      <internalNodes>
        0 -1 14044 3.5506576299667358e-01</internalNodes>
      <leafValues>
        -3.8384042680263519e-02 6.2899887561798096e-01</leafValues></_>
    <_>
      <internalNodes>
        0 -1 27562 3.0521303415298462e-02</internalNodes>
      <leafValues>
        -2.5267692282795906e-02 6.0087186098098755e-01</leafValues></_>
    <_>
      <internalNodes>
        0 -1 25848 1.5373094938695431e-03</internalNodes>
      <leafValues>
        -9.2253431677818298e-02 2.3391622304916382e-01</leafValues></_>
    <_>
      <internalNodes>
        0 -1 8720 -1.9619122147560120e-02</internalNodes>
      <leafValues>
        7.4573479592800140e-02 -3.1002122163772583e-01</leafValues></_>
    <_>
      <internalNodes>
        0 -1 25952 9.4637926667928696e-03</internalNodes>
      <leafValues>
        -5.6821964681148529e-02 4.1688919067382812e-01</leafValues></_>
    <_>
      <internalNodes>
        0 -1 15438 -1.2369725853204727e-01</internalNodes>
      <leafValues>
        -9.1852086782455444e-01 2.9315289109945297e-02</leafValues></_>
    <_>
      <internalNodes>
        0 -1 18795 -9.0084620751440525e-05</internalNodes>
      <leafValues>
        1.0579203814268112e-01 -1.8444024026393890e-01</leafValues></_>
    <_>
      <internalNodes>
        0 -1 21520 -8.9129246771335602e-04</internalNodes>
      <leafValues>
        1.7726831138134003e-01 -1.1756915599107742e-01</leafValues></_>
    <_>
      <internalNodes>
        0 -1 14522 2.7962869033217430e-02</internalNodes>
      <leafValues>
        -1.1623547226190567e-01 2.0830467343330383e-01</leafValues></_>
    <_>
      <internalNodes>
        0 -1 11405 -2.7179207652807236e-02</internalNodes>
      <leafValues>
        -5.8648532629013062e-01 4.1671935468912125e-02</leafValues></_>
    <_>
      <internalNodes>
        0 -1 13487 -1.0712434595916420e-04</internalNodes>
      <leafValues>
        1.5848268568515778e-01 -1.3425324857234955e-01</leafValues></_>
    <_>
      <internalNodes>
        0 -1 17831 -5.4698809981346130e-03</internalNodes>
      <leafValues>
        1.6968673467636108e-01 -1.1339452117681503e-01</leafValues></_>
    <_>
      <internalNodes>
        0 -1 14022 4.2468635365366936e-03</internalNodes>
      <leafValues>
        -1.1199532449245453e-01 2.1378113329410553e-01</leafValues></_>
    <_>
      <internalNodes>
        0 -1 21377 -3.4492596983909607e-02</internalNodes>
      <leafValues>
        2.0194076001644135e-01 -1.0360333323478699e-01</leafValues></_>
    <_>
      <internalNodes>
        0 -1 17130 -2.8609905857592821e-03</internalNodes>
      <leafValues>
        2.2312934696674347e-01 -9.3524441123008728e-02</leafValues></_>
    <_>
      <internalNodes>
        0 -1 4860 2.6615024544298649e-03</internalNodes>
      <leafValues>
        6.7730374634265900e-02 -3.0591505765914917e-01</leafValues></_>
    <_>
      <internalNodes>
        0 -1 4777 1.3973278691992164e-04</internalNodes>
      <leafValues>
        -1.5868954360485077e-01 1.4654670655727386e-01</leafValues></_>
    <_>
      <internalNodes>
        0 -1 25359 -4.1230488568544388e-02</internalNodes>
      <leafValues>
        5.6920111179351807e-01 -3.4715149551630020e-02</leafValues></_>
    <_>
      <internalNodes>
        0 -1 3959 -4.2791385203599930e-02</internalNodes>
      <leafValues>
        9.1081380844116211e-02 -2.1789871156215668e-01</leafValues></_>
    <_>
      <internalNodes>
        0 -1 13055 1.1012163013219833e-02</internalNodes>
      <leafValues>
        -4.8304069787263870e-02 4.3552273511886597e-01</leafValues></_>
    <_>
      <internalNodes>
        0 -1 18966 2.3166308528743684e-04</internalNodes>
      <leafValues>
        1.0700128227472305e-01 -1.9067549705505371e-01</leafValues></_>
    <_>
      <internalNodes>
        0 -1 17054 -5.1881764084100723e-03</internalNodes>
      <leafValues>
        -2.6230299472808838e-01 7.8858159482479095e-02</leafValues></_>
    <_>
      <internalNodes>
        0 -1 13507 9.9202767014503479e-03</internalNodes>
      <leafValues>
        -1.0774023830890656e-01 2.0530958473682404e-01</leafValues></_></weakClassifiers></stage18>
</opencv_storage>
