<?xml version="1.0"?>
<opencv_storage>
<stage10>
  <maxWeakCount>43</maxWeakCount>
  <stageThreshold>-9.2334109544754028e-01</stageThreshold>
  <weakClassifiers>
    <_>
      <internalNodes>
        0 -1 5475 -1.0271400213241577e-01</internalNodes>
      <leafValues>
        5.1894110441207886e-01 -1.6934487223625183e-01</leafValues></_>
    <_>
      <internalNodes>
        0 -1 9702 -2.1691861748695374e-01</internalNodes>
      <leafValues>
        4.0558066964149475e-01 -2.0846167206764221e-01</leafValues></_>
    <_>
      <internalNodes>
        0 -1 17295 -9.4075994566082954e-03</internalNodes>
      <leafValues>
        3.4389507770538330e-01 -2.2589260339736938e-01</leafValues></_>
    <_>
      <internalNodes>
        0 -1 17170 9.9007161334156990e-03</internalNodes>
      <leafValues>
        -2.4270305037498474e-01 2.8317064046859741e-01</leafValues></_>
    <_>
      <internalNodes>
        0 -1 18061 2.0518851280212402e-01</internalNodes>
      <leafValues>
        -3.2874014973640442e-01 2.0118780434131622e-01</leafValues></_>
    <_>
      <internalNodes>
        0 -1 23397 5.2035683766007423e-03</internalNodes>
      <leafValues>
        -1.7287023365497589e-01 3.4813535213470459e-01</leafValues></_>
    <_>
      <internalNodes>
        0 -1 11584 -4.5017376542091370e-02</internalNodes>
      <leafValues>
        4.4449907541275024e-01 -1.2366423755884171e-01</leafValues></_>
    <_>
      <internalNodes>
        0 -1 6413 -1.3667859137058258e-01</internalNodes>
      <leafValues>
        2.3870638012886047e-01 -1.8186315894126892e-01</leafValues></_>
    <_>
      <internalNodes>
        0 -1 26455 -5.3833434358239174e-03</internalNodes>
      <leafValues>
        2.2065381705760956e-01 -1.9205972552299500e-01</leafValues></_>
    <_>
      <internalNodes>
        0 -1 23528 1.8307559657841921e-03</internalNodes>
      <leafValues>
        1.2308198213577271e-01 -3.3989176154136658e-01</leafValues></_>
    <_>
      <internalNodes>
        0 -1 23528 -3.2462542876601219e-03</internalNodes>
      <leafValues>
        -4.2725154757499695e-01 1.1545687913894653e-01</leafValues></_>
    <_>
      <internalNodes>
        0 -1 215 -1.1568724364042282e-01</internalNodes>
      <leafValues>
        -5.8958774805068970e-01 6.1232779175043106e-02</leafValues></_>
    <_>
      <internalNodes>
        0 -1 281 6.6204115748405457e-02</internalNodes>
      <leafValues>
        5.9630822390317917e-02 -5.7403248548507690e-01</leafValues></_>
    <_>
      <internalNodes>
        0 -1 28900 -8.7961542885750532e-04</internalNodes>
      <leafValues>
        -3.3354648947715759e-01 1.0878358781337738e-01</leafValues></_>
    <_>
      <internalNodes>
        0 -1 25213 1.8429219722747803e-02</internalNodes>
      <leafValues>
        -9.2631168663501740e-02 4.0623608231544495e-01</leafValues></_>
    <_>
      <internalNodes>
        0 -1 53 -4.1214734315872192e-02</internalNodes>
      <leafValues>
        -4.3814358115196228e-01 9.4057045876979828e-02</leafValues></_>
    <_>
      <internalNodes>
        0 -1 14834 -8.1511484459042549e-03</internalNodes>
      <leafValues>
        2.3020443320274353e-01 -1.7069770395755768e-01</leafValues></_>
    <_>
      <internalNodes>
        0 -1 20995 -6.2107234261929989e-03</internalNodes>
      <leafValues>
        8.9127451181411743e-02 -3.6892035603523254e-01</leafValues></_>
    <_>
      <internalNodes>
        0 -1 13558 -1.5717407222837210e-03</internalNodes>
      <leafValues>
        -3.3795627951622009e-01 1.0413442552089691e-01</leafValues></_>
    <_>
      <internalNodes>
        0 -1 20797 -2.4940427392721176e-02</internalNodes>
      <leafValues>
        -8.9851200580596924e-01 3.8143642246723175e-02</leafValues></_>
    <_>
      <internalNodes>
        0 -1 812 -2.5221455097198486e-01</internalNodes>
      <leafValues>
        -5.8196109533309937e-01 4.8154789954423904e-02</leafValues></_>
    <_>
      <internalNodes>
        0 -1 19610 4.7116595506668091e-01</internalNodes>
      <leafValues>
        2.8991049155592918e-02 -9.3930882215499878e-01</leafValues></_>
    <_>
      <internalNodes>
        0 -1 8876 -1.8908653408288956e-02</internalNodes>
      <leafValues>
        1.1877369135618210e-01 -2.6438504457473755e-01</leafValues></_>
    <_>
      <internalNodes>
        0 -1 4847 1.5371541958302259e-03</internalNodes>
      <leafValues>
        -2.0127195119857788e-01 1.7560708522796631e-01</leafValues></_>
    <_>
      <internalNodes>
        0 -1 18017 -1.0136541910469532e-02</internalNodes>
      <leafValues>
        3.4210658073425293e-01 -1.0052929073572159e-01</leafValues></_>
    <_>
      <internalNodes>
        0 -1 21730 -9.1421170509420335e-05</internalNodes>
      <leafValues>
        1.6041731834411621e-01 -2.5213864445686340e-01</leafValues></_>
    <_>
      <internalNodes>
        0 -1 27560 -9.3188546597957611e-03</internalNodes>
      <leafValues>
        3.9578282833099365e-01 -8.3905465900897980e-02</leafValues></_>
    <_>
      <internalNodes>
        0 -1 20505 -1.6408892348408699e-02</internalNodes>
      <leafValues>
        4.3238478899002075e-01 -9.0097539126873016e-02</leafValues></_>
    <_>
      <internalNodes>
        0 -1 8930 3.1770937144756317e-02</internalNodes>
      <leafValues>
        6.4217463135719299e-02 -5.4805278778076172e-01</leafValues></_>
    <_>
      <internalNodes>
        0 -1 23518 1.9854482263326645e-02</internalNodes>
      <leafValues>
        3.7458259612321854e-02 -7.3803031444549561e-01</leafValues></_>
    <_>
      <internalNodes>
        0 -1 14326 -2.7166936546564102e-02</internalNodes>
      <leafValues>
        3.7648025155067444e-01 -9.5693379640579224e-02</leafValues></_>
    <_>
      <internalNodes>
        0 -1 9562 4.2903418652713299e-03</internalNodes>
      <leafValues>
        -1.4271447062492371e-01 2.3855812847614288e-01</leafValues></_>
    <_>
      <internalNodes>
        0 -1 17178 -5.7020601816475391e-03</internalNodes>
      <leafValues>
        -4.9244523048400879e-01 7.4106261134147644e-02</leafValues></_>
    <_>
      <internalNodes>
        0 -1 20619 1.2589201331138611e-02</internalNodes>
      <leafValues>
        -1.0362290591001511e-01 3.5277533531188965e-01</leafValues></_>
    <_>
      <internalNodes>
        0 -1 24986 6.8907570093870163e-03</internalNodes>
      <leafValues>
        -8.5938580334186554e-02 3.8260328769683838e-01</leafValues></_>
    <_>
      <internalNodes>
        0 -1 24835 -4.8168227076530457e-03</internalNodes>
      <leafValues>
        2.9125058650970459e-01 -1.5506221354007721e-01</leafValues></_>
    <_>
      <internalNodes>
        0 -1 2237 -5.3879626095294952e-02</internalNodes>
      <leafValues>
        2.4639530479907990e-01 -1.7409507930278778e-01</leafValues></_>
    <_>
      <internalNodes>
        0 -1 9702 1.8329404294490814e-01</internalNodes>
      <leafValues>
        -6.2313739210367203e-02 5.8005386590957642e-01</leafValues></_>
    <_>
      <internalNodes>
        0 -1 18966 5.5385188898071647e-04</internalNodes>
      <leafValues>
        1.4057576656341553e-01 -2.8097623586654663e-01</leafValues></_>
    <_>
      <internalNodes>
        0 -1 13961 -4.8098154366016388e-02</internalNodes>
      <leafValues>
        2.8242003917694092e-01 -1.2945383787155151e-01</leafValues></_>
    <_>
      <internalNodes>
        0 -1 17134 -3.3763498067855835e-02</internalNodes>
      <leafValues>
        -6.1747568845748901e-01 5.9119805693626404e-02</leafValues></_>
    <_>
      <internalNodes>
        0 -1 9341 -3.4772790968418121e-03</internalNodes>
      <leafValues>
        -5.6466829776763916e-01 6.0978829860687256e-02</leafValues></_>
    <_>
      <internalNodes>
        0 -1 22149 -4.8340676585212350e-05</internalNodes>
      <leafValues>
        1.4857473969459534e-01 -2.3753772675991058e-01</leafValues></_></weakClassifiers></stage10>
</opencv_storage>
