<?xml version="1.0"?>
<opencv_storage>
<stage9>
  <maxWeakCount>41</maxWeakCount>
  <stageThreshold>-9.4283437728881836e-01</stageThreshold>
  <weakClassifiers>
    <_>
      <internalNodes>
        0 -1 5876 -3.4242123365402222e-01</internalNodes>
      <leafValues>
        6.5627074241638184e-01 7.3677161708474159e-03</leafValues></_>
    <_>
      <internalNodes>
        0 -1 9679 -1.0149562358856201e-01</internalNodes>
      <leafValues>
        3.1616622209548950e-01 -2.7384513616561890e-01</leafValues></_>
    <_>
      <internalNodes>
        0 -1 17296 8.0980453640222549e-03</internalNodes>
      <leafValues>
        -1.9316747784614563e-01 3.2842680811882019e-01</leafValues></_>
    <_>
      <internalNodes>
        0 -1 28779 -3.0689282342791557e-02</internalNodes>
      <leafValues>
        6.2712770700454712e-01 -8.5884146392345428e-02</leafValues></_>
    <_>
      <internalNodes>
        0 -1 4856 1.2608995661139488e-02</internalNodes>
      <leafValues>
        -2.2712656855583191e-01 2.3174828290939331e-01</leafValues></_>
    <_>
      <internalNodes>
        0 -1 23016 -3.7159271538257599e-02</internalNodes>
      <leafValues>
        3.5047006607055664e-01 -1.6284558176994324e-01</leafValues></_>
    <_>
      <internalNodes>
        0 -1 28326 -1.8190812319517136e-02</internalNodes>
      <leafValues>
        3.5486057400703430e-01 -1.2237627804279327e-01</leafValues></_>
    <_>
      <internalNodes>
        0 -1 12921 -3.5295981913805008e-02</internalNodes>
      <leafValues>
        4.8045620322227478e-01 -9.9710069596767426e-02</leafValues></_>
    <_>
      <internalNodes>
        0 -1 9341 -2.1140018943697214e-03</internalNodes>
      <leafValues>
        -4.5426818728446960e-01 9.8355613648891449e-02</leafValues></_>
    <_>
      <internalNodes>
        0 -1 21073 -2.9744481667876244e-02</internalNodes>
      <leafValues>
        3.3091923594474792e-01 -1.4501346647739410e-01</leafValues></_>
    <_>
      <internalNodes>
        0 -1 9463 9.7769461572170258e-03</internalNodes>
      <leafValues>
        1.1431308835744858e-01 -3.8742619752883911e-01</leafValues></_>
    <_>
      <internalNodes>
        0 -1 11070 -4.0179919451475143e-02</internalNodes>
      <leafValues>
        1.7624552547931671e-01 -2.4105018377304077e-01</leafValues></_>
    <_>
      <internalNodes>
        0 -1 15158 -2.2758174687623978e-02</internalNodes>
      <leafValues>
        3.3689659833908081e-01 -1.2320329993963242e-01</leafValues></_>
    <_>
      <internalNodes>
        0 -1 20792 -6.6836259793490171e-04</internalNodes>
      <leafValues>
        -3.3166834712028503e-01 1.3455106317996979e-01</leafValues></_>
    <_>
      <internalNodes>
        0 -1 16995 7.7632991597056389e-03</internalNodes>
      <leafValues>
        -1.3183818757534027e-01 2.8527396917343140e-01</leafValues></_>
    <_>
      <internalNodes>
        0 -1 22949 4.3634398025460541e-05</internalNodes>
      <leafValues>
        -2.9093322157859802e-01 1.3720549643039703e-01</leafValues></_>
    <_>
      <internalNodes>
        0 -1 11059 -1.0905571281909943e-02</internalNodes>
      <leafValues>
        1.9626677036285400e-01 -1.9807185232639313e-01</leafValues></_>
    <_>
      <internalNodes>
        0 -1 23814 -1.7760872840881348e-02</internalNodes>
      <leafValues>
        4.2832702398300171e-01 -9.3035817146301270e-02</leafValues></_>
    <_>
      <internalNodes>
        0 -1 17380 2.0034316927194595e-02</internalNodes>
      <leafValues>
        1.0763886570930481e-01 -3.8832715153694153e-01</leafValues></_>
    <_>
      <internalNodes>
        0 -1 17338 4.7355033457279205e-02</internalNodes>
      <leafValues>
        -2.3888722062110901e-01 2.1525886654853821e-01</leafValues></_>
    <_>
      <internalNodes>
        0 -1 27635 1.2819040566682816e-02</internalNodes>
      <leafValues>
        -9.4668261706829071e-02 4.1349825263023376e-01</leafValues></_>
    <_>
      <internalNodes>
        0 -1 8108 3.1320497393608093e-02</internalNodes>
      <leafValues>
        -1.7649462819099426e-01 2.0691341161727905e-01</leafValues></_>
    <_>
      <internalNodes>
        0 -1 17863 -1.6985408961772919e-02</internalNodes>
      <leafValues>
        5.5294549465179443e-01 -7.3831588029861450e-02</leafValues></_>
    <_>
      <internalNodes>
        0 -1 14916 -6.4450287027284503e-05</internalNodes>
      <leafValues>
        2.1270288527011871e-01 -2.1072897315025330e-01</leafValues></_>
    <_>
      <internalNodes>
        0 -1 815 -3.0540448427200317e-01</internalNodes>
      <leafValues>
        -6.3491439819335938e-01 6.3637152314186096e-02</leafValues></_>
    <_>
      <internalNodes>
        0 -1 27827 -9.0928270947188139e-04</internalNodes>
      <leafValues>
        -3.9322584867477417e-01 8.6132369935512543e-02</leafValues></_>
    <_>
      <internalNodes>
        0 -1 26068 7.4745072051882744e-03</internalNodes>
      <leafValues>
        -8.9105874300003052e-02 3.9837339520454407e-01</leafValues></_>
    <_>
      <internalNodes>
        0 -1 24687 6.1924010515213013e-02</internalNodes>
      <leafValues>
        -7.8301377594470978e-02 4.3712165951728821e-01</leafValues></_>
    <_>
      <internalNodes>
        0 -1 17549 -4.1004978120326996e-02</internalNodes>
      <leafValues>
        4.5470482110977173e-01 -8.5660897195339203e-02</leafValues></_>
    <_>
      <internalNodes>
        0 -1 18862 -5.5657044867984951e-05</internalNodes>
      <leafValues>
        1.3772433996200562e-01 -2.6582059264183044e-01</leafValues></_>
    <_>
      <internalNodes>
        0 -1 18314 -6.8387249484658241e-03</internalNodes>
      <leafValues>
        3.0986753106117249e-01 -1.2720434367656708e-01</leafValues></_>
    <_>
      <internalNodes>
        0 -1 27847 -1.2048175558447838e-03</internalNodes>
      <leafValues>
        -2.5399449467658997e-01 1.4217403531074524e-01</leafValues></_>
    <_>
      <internalNodes>
        0 -1 27854 9.0644704177975655e-03</internalNodes>
      <leafValues>
        7.5199484825134277e-02 -4.5674717426300049e-01</leafValues></_>
    <_>
      <internalNodes>
        0 -1 23330 6.1571393162012100e-03</internalNodes>
      <leafValues>
        -1.6004461050033569e-01 2.1164438128471375e-01</leafValues></_>
    <_>
      <internalNodes>
        0 -1 13248 3.5246156156063080e-02</internalNodes>
      <leafValues>
        -8.5766762495040894e-02 4.0707632899284363e-01</leafValues></_>
    <_>
      <internalNodes>
        0 -1 22521 -1.9003491848707199e-02</internalNodes>
      <leafValues>
        2.7180811762809753e-01 -1.3512387871742249e-01</leafValues></_>
    <_>
      <internalNodes>
        0 -1 27487 2.1398819983005524e-02</internalNodes>
      <leafValues>
        -1.3377556204795837e-01 2.3007768392562866e-01</leafValues></_>
    <_>
      <internalNodes>
        0 -1 4859 -1.4359101187437773e-03</internalNodes>
      <leafValues>
        -3.3675566315650940e-01 9.1119840741157532e-02</leafValues></_>
    <_>
      <internalNodes>
        0 -1 4859 2.4465990718454123e-03</internalNodes>
      <leafValues>
        9.2036001384258270e-02 -3.9222964644432068e-01</leafValues></_>
    <_>
      <internalNodes>
        0 -1 18719 -1.0102840315084904e-04</internalNodes>
      <leafValues>
        1.3866303861141205e-01 -2.3547242581844330e-01</leafValues></_>
    <_>
      <internalNodes>
        0 -1 21956 -1.7480652779340744e-02</internalNodes>
      <leafValues>
        -5.5922985076904297e-01 6.6647768020629883e-02</leafValues></_></weakClassifiers></stage9>
</opencv_storage>
