<?xml version="1.0"?>
<opencv_storage>
<stage15>
  <maxWeakCount>61</maxWeakCount>
  <stageThreshold>-8.4066003561019897e-01</stageThreshold>
  <weakClassifiers>
    <_>
      <internalNodes>
        0 -1 5474 -3.8244485855102539e-01</internalNodes>
      <leafValues>
        6.1781376600265503e-01 1.3427762687206268e-01</leafValues></_>
    <_>
      <internalNodes>
        0 -1 20852 -8.2737943157553673e-03</internalNodes>
      <leafValues>
        2.6513350009918213e-01 -1.4615391194820404e-01</leafValues></_>
    <_>
      <internalNodes>
        0 -1 5018 -5.9702092409133911e-01</internalNodes>
      <leafValues>
        2.2884590923786163e-01 -1.8914133310317993e-01</leafValues></_>
    <_>
      <internalNodes>
        0 -1 4856 1.5441836789250374e-02</internalNodes>
      <leafValues>
        -1.6595391929149628e-01 2.3009449243545532e-01</leafValues></_>
    <_>
      <internalNodes>
        0 -1 23297 -1.1181151494383812e-02</internalNodes>
      <leafValues>
        3.6541414260864258e-01 -1.0432709008455276e-01</leafValues></_>
    <_>
      <internalNodes>
        0 -1 11420 -1.6210454050451517e-03</internalNodes>
      <leafValues>
        8.7303049862384796e-02 -3.1625410914421082e-01</leafValues></_>
    <_>
      <internalNodes>
        0 -1 17294 -5.2510611712932587e-03</internalNodes>
      <leafValues>
        2.2040595114231110e-01 -1.4298579096794128e-01</leafValues></_>
    <_>
      <internalNodes>
        0 -1 4360 -8.7257370352745056e-02</internalNodes>
      <leafValues>
        1.4408512413501740e-01 -2.1169635653495789e-01</leafValues></_>
    <_>
      <internalNodes>
        0 -1 16092 1.9155655056238174e-02</internalNodes>
      <leafValues>
        -9.6175789833068848e-02 3.8073647022247314e-01</leafValues></_>
    <_>
      <internalNodes>
        0 -1 13212 9.5500871539115906e-03</internalNodes>
      <leafValues>
        -1.1351201683282852e-01 2.8258508443832397e-01</leafValues></_>
    <_>
      <internalNodes>
        0 -1 11478 -6.3881268724799156e-03</internalNodes>
      <leafValues>
        2.2609844803810120e-01 -1.4391937851905823e-01</leafValues></_>
    <_>
      <internalNodes>
        0 -1 3150 -4.2845830321311951e-02</internalNodes>
      <leafValues>
        -4.7534716129302979e-01 5.9887286275625229e-02</leafValues></_>
    <_>
      <internalNodes>
        0 -1 17965 -6.4827732741832733e-02</internalNodes>
      <leafValues>
        -5.0236153602600098e-01 5.5157780647277832e-02</leafValues></_>
    <_>
      <internalNodes>
        0 -1 17180 -7.1222120895981789e-03</internalNodes>
      <leafValues>
        -4.3957540392875671e-01 6.2336098402738571e-02</leafValues></_>
    <_>
      <internalNodes>
        0 -1 13369 -3.2205089926719666e-02</internalNodes>
      <leafValues>
        -5.4477751255035400e-01 4.7138042747974396e-02</leafValues></_>
    <_>
      <internalNodes>
        0 -1 21734 -1.2199254706501961e-04</internalNodes>
      <leafValues>
        1.4139074087142944e-01 -1.8855103850364685e-01</leafValues></_>
    <_>
      <internalNodes>
        0 -1 21477 2.9115848243236542e-02</internalNodes>
      <leafValues>
        -9.0717732906341553e-02 3.2447442412376404e-01</leafValues></_>
    <_>
      <internalNodes>
        0 -1 17525 -1.0047145187854767e-02</internalNodes>
      <leafValues>
        -3.7793415784835815e-01 8.1056699156761169e-02</leafValues></_>
    <_>
      <internalNodes>
        0 -1 16887 1.0790446773171425e-02</internalNodes>
      <leafValues>
        -1.4164406061172485e-01 1.8949268758296967e-01</leafValues></_>
    <_>
      <internalNodes>
        0 -1 12987 1.1366547644138336e-01</internalNodes>
      <leafValues>
        4.8947770148515701e-02 -5.5054360628128052e-01</leafValues></_>
    <_>
      <internalNodes>
        0 -1 4860 3.1786793842911720e-03</internalNodes>
      <leafValues>
        6.8074062466621399e-02 -3.7905880808830261e-01</leafValues></_>
    <_>
      <internalNodes>
        0 -1 28165 3.4607946872711182e-02</internalNodes>
      <leafValues>
        -7.5908489525318146e-02 3.5350543260574341e-01</leafValues></_>
    <_>
      <internalNodes>
        0 -1 16977 9.2540849000215530e-03</internalNodes>
      <leafValues>
        -9.8234675824642181e-02 2.8195536136627197e-01</leafValues></_>
    <_>
      <internalNodes>
        0 -1 15292 1.1279097199440002e-01</internalNodes>
      <leafValues>
        -2.5262498855590820e-01 1.0684521496295929e-01</leafValues></_>
    <_>
      <internalNodes>
        0 -1 16993 1.0631101205945015e-02</internalNodes>
      <leafValues>
        -1.1633135378360748e-01 2.6899361610412598e-01</leafValues></_>
    <_>
      <internalNodes>
        0 -1 28924 6.4923241734504700e-02</internalNodes>
      <leafValues>
        3.8177043199539185e-02 -8.3190107345581055e-01</leafValues></_>
    <_>
      <internalNodes>
        0 -1 13063 1.9351780065335333e-04</internalNodes>
      <leafValues>
        -1.8627339601516724e-01 1.4165534079074860e-01</leafValues></_>
    <_>
      <internalNodes>
        0 -1 950 8.9475587010383606e-03</internalNodes>
      <leafValues>
        -1.2288142740726471e-01 2.1493496000766754e-01</leafValues></_>
    <_>
      <internalNodes>
        0 -1 5416 -1.5637330710887909e-02</internalNodes>
      <leafValues>
        2.3077249526977539e-01 -1.1690035462379456e-01</leafValues></_>
    <_>
      <internalNodes>
        0 -1 14091 -9.2955576255917549e-03</internalNodes>
      <leafValues>
        2.0890243351459503e-01 -1.5225413441658020e-01</leafValues></_>
    <_>
      <internalNodes>
        0 -1 827 -4.7399036586284637e-02</internalNodes>
      <leafValues>
        -7.4091392755508423e-01 3.7220247089862823e-02</leafValues></_>
    <_>
      <internalNodes>
        0 -1 1774 2.9801703989505768e-02</internalNodes>
      <leafValues>
        3.3841554075479507e-02 -6.2100350856781006e-01</leafValues></_>
    <_>
      <internalNodes>
        0 -1 14095 -2.2212311625480652e-02</internalNodes>
      <leafValues>
        -2.9686421155929565e-01 8.1853426992893219e-02</leafValues></_>
    <_>
      <internalNodes>
        0 -1 9619 3.8886456750333309e-03</internalNodes>
      <leafValues>
        -2.2465801239013672e-01 1.1904496699571609e-01</leafValues></_>
    <_>
      <internalNodes>
        0 -1 27736 -6.2719985842704773e-02</internalNodes>
      <leafValues>
        -6.8444442749023438e-01 3.6829859018325806e-02</leafValues></_>
    <_>
      <internalNodes>
        0 -1 9152 2.6627492159605026e-02</internalNodes>
      <leafValues>
        3.0304646119475365e-02 -6.7854213714599609e-01</leafValues></_>
    <_>
      <internalNodes>
        0 -1 12909 -3.7197835743427277e-02</internalNodes>
      <leafValues>
        4.0495735406875610e-01 -6.3471652567386627e-02</leafValues></_>
    <_>
      <internalNodes>
        0 -1 4777 -2.9343371279537678e-03</internalNodes>
      <leafValues>
        -2.4547092616558075e-01 1.0212437808513641e-01</leafValues></_>
    <_>
      <internalNodes>
        0 -1 29229 -1.3041807687841356e-04</internalNodes>
      <leafValues>
        1.6823373734951019e-01 -1.4410685002803802e-01</leafValues></_>
    <_>
      <internalNodes>
        0 -1 14912 -2.2864605486392975e-01</internalNodes>
      <leafValues>
        -8.2236689329147339e-01 2.4664146825671196e-02</leafValues></_>
    <_>
      <internalNodes>
        0 -1 9100 1.2957763858139515e-02</internalNodes>
      <leafValues>
        -1.1084403842687607e-01 2.3871387541294098e-01</leafValues></_>
    <_>
      <internalNodes>
        0 -1 18984 5.3205005824565887e-03</internalNodes>
      <leafValues>
        1.0694064944982529e-01 -2.3057161271572113e-01</leafValues></_>
    <_>
      <internalNodes>
        0 -1 15791 2.1594107151031494e-02</internalNodes>
      <leafValues>
        -6.6554889082908630e-02 4.3821090459823608e-01</leafValues></_>
    <_>
      <internalNodes>
        0 -1 16628 2.7356993407011032e-02</internalNodes>
      <leafValues>
        -6.0392685234546661e-02 3.6302927136421204e-01</leafValues></_>
    <_>
      <internalNodes>
        0 -1 21518 -1.8475684337317944e-03</internalNodes>
      <leafValues>
        2.1750983595848083e-01 -1.1458607017993927e-01</leafValues></_>
    <_>
      <internalNodes>
        0 -1 29090 -1.5000214800238609e-02</internalNodes>
      <leafValues>
        3.4610286355018616e-01 -7.0385128259658813e-02</leafValues></_>
    <_>
      <internalNodes>
        0 -1 27828 -6.9725937210023403e-03</internalNodes>
      <leafValues>
        -6.3020414113998413e-01 4.0268406271934509e-02</leafValues></_>
    <_>
      <internalNodes>
        0 -1 8826 -1.4823663979768753e-02</internalNodes>
      <leafValues>
        2.7547490596771240e-01 -9.1159462928771973e-02</leafValues></_>
    <_>
      <internalNodes>
        0 -1 20383 -2.4593193084001541e-02</internalNodes>
      <leafValues>
        4.5454889535903931e-01 -4.9634210765361786e-02</leafValues></_>
    <_>
      <internalNodes>
        0 -1 18709 -1.2014599633403122e-04</internalNodes>
      <leafValues>
        1.3273261487483978e-01 -1.7964826524257660e-01</leafValues></_>
    <_>
      <internalNodes>
        0 -1 18978 1.9884635694324970e-03</internalNodes>
      <leafValues>
        9.7648732364177704e-02 -2.8953942656517029e-01</leafValues></_>
    <_>
      <internalNodes>
        0 -1 14552 -6.3243084587156773e-03</internalNodes>
      <leafValues>
        1.4362947642803192e-01 -1.6835865378379822e-01</leafValues></_>
    <_>
      <internalNodes>
        0 -1 9472 1.4724208042025566e-02</internalNodes>
      <leafValues>
        -5.9558711946010590e-02 4.0923249721527100e-01</leafValues></_>
    <_>
      <internalNodes>
        0 -1 13679 -1.1872321367263794e-02</internalNodes>
      <leafValues>
        4.0318262577056885e-01 -5.7348225265741348e-02</leafValues></_>
    <_>
      <internalNodes>
        0 -1 13765 -7.9629688116256148e-05</internalNodes>
      <leafValues>
        1.0526726394891739e-01 -2.1874912083148956e-01</leafValues></_>
    <_>
      <internalNodes>
        0 -1 5224 -5.4802345111966133e-03</internalNodes>
      <leafValues>
        9.8369859158992767e-02 -2.4110400676727295e-01</leafValues></_>
    <_>
      <internalNodes>
        0 -1 21432 -1.6267493367195129e-01</internalNodes>
      <leafValues>
        7.3889243602752686e-01 -3.6284230649471283e-02</leafValues></_>
    <_>
      <internalNodes>
        0 -1 5284 -5.6792877614498138e-02</internalNodes>
      <leafValues>
        -7.1363091468811035e-01 4.2029257863759995e-02</leafValues></_>
    <_>
      <internalNodes>
        0 -1 17129 -7.2271665558218956e-03</internalNodes>
      <leafValues>
        2.3294942080974579e-01 -1.0135633498430252e-01</leafValues></_>
    <_>
      <internalNodes>
        0 -1 27560 -1.9832629710435867e-02</internalNodes>
      <leafValues>
        5.4556590318679810e-01 -4.1072543710470200e-02</leafValues></_>
    <_>
      <internalNodes>
        0 -1 13560 1.2404282577335835e-02</internalNodes>
      <leafValues>
        3.2046828418970108e-02 -8.0350929498672485e-01</leafValues></_></weakClassifiers></stage15>
</opencv_storage>
