<?xml version="1.0"?>
<opencv_storage>
<stage0>
  <maxWeakCount>5</maxWeakCount>
  <stageThreshold>-8.3282846212387085e-01</stageThreshold>
  <weakClassifiers>
    <_>
      <internalNodes>
        0 -1 723 -1.8370905518531799e-01</internalNodes>
      <leafValues>
        9.8714512586593628e-01 -7.4404233694076538e-01</leafValues></_>
    <_>
      <internalNodes>
        0 -1 7614 -1.1431886255741119e-01</internalNodes>
      <leafValues>
        9.6686357259750366e-01 -3.8570860028266907e-01</leafValues></_>
    <_>
      <internalNodes>
        0 -1 19999 6.1772141605615616e-02</internalNodes>
      <leafValues>
        -2.2236800193786621e-01 9.0224641561508179e-01</leafValues></_>
    <_>
      <internalNodes>
        0 -1 5805 -9.1172736138105392e-03</internalNodes>
      <leafValues>
        7.4864709377288818e-01 -3.1009736657142639e-01</leafValues></_>
    <_>
      <internalNodes>
        0 -1 2604 -6.4281836152076721e-02</internalNodes>
      <leafValues>
        8.8557273149490356e-01 -2.2935663163661957e-01</leafValues></_></weakClassifiers></stage0>
</opencv_storage>
