<?xml version="1.0"?>
<opencv_storage>
<stage12>
  <maxWeakCount>55</maxWeakCount>
  <stageThreshold>-8.0867403745651245e-01</stageThreshold>
  <weakClassifiers>
    <_>
      <internalNodes>
        0 -1 18108 -2.1677711606025696e-01</internalNodes>
      <leafValues>
        5.9871792793273926e-01 4.5833334326744080e-02</leafValues></_>
    <_>
      <internalNodes>
        0 -1 248181 -3.1928401440382004e-03</internalNodes>
      <leafValues>
        4.8302638530731201e-01 -1.0906777530908585e-01</leafValues></_>
    <_>
      <internalNodes>
        0 -1 408479 -3.8391988724470139e-02</internalNodes>
      <leafValues>
        6.7771798372268677e-01 -8.7372899055480957e-02</leafValues></_>
    <_>
      <internalNodes>
        0 -1 254114 1.4856742322444916e-01</internalNodes>
      <leafValues>
        -1.2391042709350586e-01 4.7200652956962585e-01</leafValues></_>
    <_>
      <internalNodes>
        0 -1 275864 2.1062551531940699e-03</internalNodes>
      <leafValues>
        -2.4861259758472443e-01 1.4421163499355316e-01</leafValues></_>
    <_>
      <internalNodes>
        0 -1 311741 9.2690938618034124e-04</internalNodes>
      <leafValues>
        -2.2841584682464600e-01 1.5087880194187164e-01</leafValues></_>
    <_>
      <internalNodes>
        0 -1 224303 -2.5118544697761536e-02</internalNodes>
      <leafValues>
        3.0314943194389343e-01 -1.1274450272321701e-01</leafValues></_>
    <_>
      <internalNodes>
        0 -1 316725 3.0674976296722889e-03</internalNodes>
      <leafValues>
        -7.3487296700477600e-02 5.6203627586364746e-01</leafValues></_>
    <_>
      <internalNodes>
        0 -1 429400 -1.1873485520482063e-02</internalNodes>
      <leafValues>
        4.9442255496978760e-01 -5.7944905012845993e-02</leafValues></_>
    <_>
      <internalNodes>
        0 -1 234784 1.9456681911833584e-04</internalNodes>
      <leafValues>
        1.1253550648689270e-01 -2.8512167930603027e-01</leafValues></_>
    <_>
      <internalNodes>
        0 -1 360318 1.1021463200449944e-02</internalNodes>
      <leafValues>
        -1.3067559897899628e-01 2.4489095807075500e-01</leafValues></_>
    <_>
      <internalNodes>
        0 -1 383071 -9.1665145009756088e-03</internalNodes>
      <leafValues>
        2.8647238016128540e-01 -1.3145828247070312e-01</leafValues></_>
    <_>
      <internalNodes>
        0 -1 342338 -6.2618835363537073e-04</internalNodes>
      <leafValues>
        2.9388803243637085e-01 -1.0119497030973434e-01</leafValues></_>
    <_>
      <internalNodes>
        0 -1 208237 1.1469385586678982e-02</internalNodes>
      <leafValues>
        -8.8813491165637970e-02 3.5344293713569641e-01</leafValues></_>
    <_>
      <internalNodes>
        0 -1 273855 -5.6947255507111549e-04</internalNodes>
      <leafValues>
        -2.7108049392700195e-01 1.3184830546379089e-01</leafValues></_>
    <_>
      <internalNodes>
        0 -1 337826 -4.9144716467708349e-04</internalNodes>
      <leafValues>
        -3.8865968585014343e-01 6.8885885179042816e-02</leafValues></_>
    <_>
      <internalNodes>
        0 -1 382358 2.6887201238423586e-04</internalNodes>
      <leafValues>
        9.0506002306938171e-02 -3.0697795748710632e-01</leafValues></_>
    <_>
      <internalNodes>
        0 -1 118050 -1.1343816295266151e-03</internalNodes>
      <leafValues>
        1.7034146189689636e-01 -1.6715940833091736e-01</leafValues></_>
    <_>
      <internalNodes>
        0 -1 395207 -1.8289032595930621e-05</internalNodes>
      <leafValues>
        1.3568268716335297e-01 -2.1555924415588379e-01</leafValues></_>
    <_>
      <internalNodes>
        0 -1 426751 2.0065445452928543e-02</internalNodes>
      <leafValues>
        6.2136791646480560e-02 -5.1998805999755859e-01</leafValues></_>
    <_>
      <internalNodes>
        0 -1 214791 -1.3727592304348946e-02</internalNodes>
      <leafValues>
        5.0807887315750122e-01 -5.9407066553831100e-02</leafValues></_>
    <_>
      <internalNodes>
        0 -1 246265 -8.2217065937584266e-06</internalNodes>
      <leafValues>
        1.5513516962528229e-01 -2.1591937541961670e-01</leafValues></_>
    <_>
      <internalNodes>
        0 -1 922 1.4205044507980347e-01</internalNodes>
      <leafValues>
        -4.9806419759988785e-02 6.1256670951843262e-01</leafValues></_>
    <_>
      <internalNodes>
        0 -1 163848 -1.5582426451146603e-02</internalNodes>
      <leafValues>
        -4.9713411927223206e-01 6.3387103378772736e-02</leafValues></_>
    <_>
      <internalNodes>
        0 -1 477256 -1.6919310437515378e-03</internalNodes>
      <leafValues>
        -4.2694813013076782e-01 5.9345822781324387e-02</leafValues></_>
    <_>
      <internalNodes>
        0 -1 138439 -2.4620201438665390e-03</internalNodes>
      <leafValues>
        3.7663438916206360e-01 -7.5401626527309418e-02</leafValues></_>
    <_>
      <internalNodes>
        0 -1 311528 2.3272461257874966e-03</internalNodes>
      <leafValues>
        -5.2115172147750854e-02 5.0546389818191528e-01</leafValues></_>
    <_>
      <internalNodes>
        0 -1 252446 -1.4360494911670685e-02</internalNodes>
      <leafValues>
        2.1716149151325226e-01 -1.3877768814563751e-01</leafValues></_>
    <_>
      <internalNodes>
        0 -1 254377 -1.8677760381251574e-03</internalNodes>
      <leafValues>
        2.6255804300308228e-01 -1.0897268354892731e-01</leafValues></_>
    <_>
      <internalNodes>
        0 -1 466064 -6.6596991382539272e-04</internalNodes>
      <leafValues>
        -4.0473756194114685e-01 7.8503422439098358e-02</leafValues></_>
    <_>
      <internalNodes>
        0 -1 233813 -3.7682475522160530e-03</internalNodes>
      <leafValues>
        -3.8184970617294312e-01 6.8768635392189026e-02</leafValues></_>
    <_>
      <internalNodes>
        0 -1 77974 -2.0167171955108643e-02</internalNodes>
      <leafValues>
        1.6386958956718445e-01 -2.0177517831325531e-01</leafValues></_>
    <_>
      <internalNodes>
        0 -1 132955 -7.6810279861092567e-03</internalNodes>
      <leafValues>
        2.7785521745681763e-01 -1.1677210032939911e-01</leafValues></_>
    <_>
      <internalNodes>
        0 -1 403066 -8.7567884474992752e-03</internalNodes>
      <leafValues>
        6.0934543609619141e-01 -4.0718413889408112e-02</leafValues></_>
    <_>
      <internalNodes>
        0 -1 351957 1.0602722613839433e-04</internalNodes>
      <leafValues>
        -1.7508324980735779e-01 1.8328639864921570e-01</leafValues></_>
    <_>
      <internalNodes>
        0 -1 83045 -2.3682164028286934e-02</internalNodes>
      <leafValues>
        3.6456134915351868e-01 -8.2873016595840454e-02</leafValues></_>
    <_>
      <internalNodes>
        0 -1 419562 -3.7105986848473549e-03</internalNodes>
      <leafValues>
        2.8225845098495483e-01 -1.1879440397024155e-01</leafValues></_>
    <_>
      <internalNodes>
        0 -1 479389 -5.0865965895354748e-03</internalNodes>
      <leafValues>
        -5.6656485795974731e-01 5.3816121071577072e-02</leafValues></_>
    <_>
      <internalNodes>
        0 -1 474544 6.5177474170923233e-03</internalNodes>
      <leafValues>
        -4.9131061881780624e-02 6.0979306697845459e-01</leafValues></_>
    <_>
      <internalNodes>
        0 -1 219381 1.8742878455668688e-04</internalNodes>
      <leafValues>
        9.2685736715793610e-02 -2.9900410771369934e-01</leafValues></_>
    <_>
      <internalNodes>
        0 -1 247132 1.0436968877911568e-02</internalNodes>
      <leafValues>
        -9.7557060420513153e-02 2.8053703904151917e-01</leafValues></_>
    <_>
      <internalNodes>
        0 -1 218166 1.8696711631491780e-03</internalNodes>
      <leafValues>
        -1.1417882889509201e-01 2.7387198805809021e-01</leafValues></_>
    <_>
      <internalNodes>
        0 -1 330363 -1.7542093992233276e-03</internalNodes>
      <leafValues>
        -4.1707396507263184e-01 7.6232634484767914e-02</leafValues></_>
    <_>
      <internalNodes>
        0 -1 303157 -6.7964009940624237e-04</internalNodes>
      <leafValues>
        -3.0711665749549866e-01 9.5761083066463470e-02</leafValues></_>
    <_>
      <internalNodes>
        0 -1 384890 -8.3099721450707875e-06</internalNodes>
      <leafValues>
        1.7984412610530853e-01 -1.4954453706741333e-01</leafValues></_>
    <_>
      <internalNodes>
        0 -1 408421 -4.5081796124577522e-03</internalNodes>
      <leafValues>
        5.4893249273300171e-01 -4.6493023633956909e-02</leafValues></_>
    <_>
      <internalNodes>
        0 -1 396452 -6.9419096689671278e-04</internalNodes>
      <leafValues>
        1.4472813904285431e-01 -1.8318472802639008e-01</leafValues></_>
    <_>
      <internalNodes>
        0 -1 312851 5.5096052587032318e-02</internalNodes>
      <leafValues>
        5.9154387563467026e-02 -4.3401595950126648e-01</leafValues></_>
    <_>
      <internalNodes>
        0 -1 385819 1.1298318895569537e-05</internalNodes>
      <leafValues>
        -1.5652523934841156e-01 1.7560860514640808e-01</leafValues></_>
    <_>
      <internalNodes>
        0 -1 78296 -1.1026439666748047e+00</internalNodes>
      <leafValues>
        5.9033375978469849e-01 -4.3696485459804535e-02</leafValues></_>
    <_>
      <internalNodes>
        0 -1 451179 -1.0729522909969091e-03</internalNodes>
      <leafValues>
        4.4258409738540649e-01 -5.8035753667354584e-02</leafValues></_>
    <_>
      <internalNodes>
        0 -1 312832 -2.3443913087248802e-03</internalNodes>
      <leafValues>
        2.6910245418548584e-01 -9.4412438571453094e-02</leafValues></_>
    <_>
      <internalNodes>
        0 -1 398681 -1.1076901573687792e-03</internalNodes>
      <leafValues>
        -4.4306886196136475e-01 6.8154290318489075e-02</leafValues></_>
    <_>
      <internalNodes>
        0 -1 336010 7.4592363089323044e-03</internalNodes>
      <leafValues>
        -5.7981532067060471e-02 5.0959122180938721e-01</leafValues></_>
    <_>
      <internalNodes>
        0 -1 77667 -1.8107868963852525e-03</internalNodes>
      <leafValues>
        -2.2968508303165436e-01 1.1339891701936722e-01</leafValues></_></weakClassifiers></stage12>
</opencv_storage>
