<?xml version="1.0"?>
<opencv_storage>
<stage7>
  <maxWeakCount>40</maxWeakCount>
  <stageThreshold>-9.5411550998687744e-01</stageThreshold>
  <weakClassifiers>
    <_>
      <internalNodes>
        0 -1 70875 -4.4710926711559296e-02</internalNodes>
      <leafValues>
        6.5012407302856445e-01 -3.4582134336233139e-02</leafValues></_>
    <_>
      <internalNodes>
        0 -1 456439 -9.0769432485103607e-02</internalNodes>
      <leafValues>
        5.8364033699035645e-01 -1.2654930353164673e-01</leafValues></_>
    <_>
      <internalNodes>
        0 -1 278602 -4.2684543877840042e-03</internalNodes>
      <leafValues>
        4.8275256156921387e-01 -1.3917903602123260e-01</leafValues></_>
    <_>
      <internalNodes>
        0 -1 377648 1.2114744633436203e-02</internalNodes>
      <leafValues>
        -1.4392171800136566e-01 4.2528373003005981e-01</leafValues></_>
    <_>
      <internalNodes>
        0 -1 253270 -3.8227981422096491e-03</internalNodes>
      <leafValues>
        2.1539209783077240e-01 -2.2871550917625427e-01</leafValues></_>
    <_>
      <internalNodes>
        0 -1 202366 -9.0773555712075904e-06</internalNodes>
      <leafValues>
        1.6077230870723724e-01 -2.7838969230651855e-01</leafValues></_>
    <_>
      <internalNodes>
        0 -1 251061 -1.7197193810716271e-03</internalNodes>
      <leafValues>
        3.4069824218750000e-01 -1.4035597443580627e-01</leafValues></_>
    <_>
      <internalNodes>
        0 -1 78870 -5.1965191960334778e-03</internalNodes>
      <leafValues>
        2.3455700278282166e-01 -1.8675319850444794e-01</leafValues></_>
    <_>
      <internalNodes>
        0 -1 226107 -1.6185144195333123e-03</internalNodes>
      <leafValues>
        3.2035568356513977e-01 -1.2973430752754211e-01</leafValues></_>
    <_>
      <internalNodes>
        0 -1 343625 -1.1481279507279396e-03</internalNodes>
      <leafValues>
        3.5393694043159485e-01 -1.1936616152524948e-01</leafValues></_>
    <_>
      <internalNodes>
        0 -1 256709 -1.2074463302269578e-03</internalNodes>
      <leafValues>
        2.7081683278083801e-01 -1.5988366305828094e-01</leafValues></_>
    <_>
      <internalNodes>
        0 -1 360604 4.7805896028876305e-03</internalNodes>
      <leafValues>
        -9.0048573911190033e-02 4.2969012260437012e-01</leafValues></_>
    <_>
      <internalNodes>
        0 -1 214579 2.2944226861000061e-02</internalNodes>
      <leafValues>
        -2.1159851551055908e-01 2.0451813936233521e-01</leafValues></_>
    <_>
      <internalNodes>
        0 -1 477930 -4.2227207450196147e-04</internalNodes>
      <leafValues>
        -4.2493298649787903e-01 1.0506130009889603e-01</leafValues></_>
    <_>
      <internalNodes>
        0 -1 413939 1.1365805752575397e-02</internalNodes>
      <leafValues>
        -6.2739908695220947e-02 7.4168330430984497e-01</leafValues></_>
    <_>
      <internalNodes>
        0 -1 433253 -5.4223332554101944e-03</internalNodes>
      <leafValues>
        5.0052201747894287e-01 -7.9433590173721313e-02</leafValues></_>
    <_>
      <internalNodes>
        0 -1 407561 2.6868085842579603e-04</internalNodes>
      <leafValues>
        1.1577232182025909e-01 -3.8246709108352661e-01</leafValues></_>
    <_>
      <internalNodes>
        0 -1 330227 -8.4714160766452551e-04</internalNodes>
      <leafValues>
        -4.1939857602119446e-01 7.9895593225955963e-02</leafValues></_>
    <_>
      <internalNodes>
        0 -1 357182 -3.3246162347495556e-03</internalNodes>
      <leafValues>
        4.3812248110771179e-01 -8.8127687573432922e-02</leafValues></_>
    <_>
      <internalNodes>
        0 -1 17624 -2.2096943110227585e-02</internalNodes>
      <leafValues>
        4.2969924211502075e-01 -9.2348158359527588e-02</leafValues></_>
    <_>
      <internalNodes>
        0 -1 179862 -5.9686079621315002e-02</internalNodes>
      <leafValues>
        6.5545129776000977e-01 -4.6344436705112457e-02</leafValues></_>
    <_>
      <internalNodes>
        0 -1 337571 2.7441140264272690e-03</internalNodes>
      <leafValues>
        -9.0403169393539429e-02 4.1008856892585754e-01</leafValues></_>
    <_>
      <internalNodes>
        0 -1 311597 -3.2321251928806305e-03</internalNodes>
      <leafValues>
        2.9159578680992126e-01 -1.4106684923171997e-01</leafValues></_>
    <_>
      <internalNodes>
        0 -1 349502 1.2875969987362623e-03</internalNodes>
      <leafValues>
        1.1193145066499710e-01 -3.6366462707519531e-01</leafValues></_>
    <_>
      <internalNodes>
        0 -1 159860 -6.6498643718659878e-03</internalNodes>
      <leafValues>
        2.6201736927032471e-01 -1.4549759030342102e-01</leafValues></_>
    <_>
      <internalNodes>
        0 -1 92537 4.4946253299713135e-02</internalNodes>
      <leafValues>
        -4.7248002141714096e-02 7.2212362289428711e-01</leafValues></_>
    <_>
      <internalNodes>
        0 -1 165585 -1.9700288772583008e-01</internalNodes>
      <leafValues>
        5.2042025327682495e-01 -6.0979805886745453e-02</leafValues></_>
    <_>
      <internalNodes>
        0 -1 320761 -1.2314151717873756e-05</internalNodes>
      <leafValues>
        2.0531049370765686e-01 -2.0154519379138947e-01</leafValues></_>
    <_>
      <internalNodes>
        0 -1 380023 -9.6099305665120482e-04</internalNodes>
      <leafValues>
        2.5163823366165161e-01 -1.3628330826759338e-01</leafValues></_>
    <_>
      <internalNodes>
        0 -1 75408 -1.1583399027585983e-02</internalNodes>
      <leafValues>
        5.4109084606170654e-01 -5.5720645934343338e-02</leafValues></_>
    <_>
      <internalNodes>
        0 -1 397197 -1.9434664864093065e-03</internalNodes>
      <leafValues>
        2.0670412480831146e-01 -1.7008581757545471e-01</leafValues></_>
    <_>
      <internalNodes>
        0 -1 458270 -1.3059323653578758e-02</internalNodes>
      <leafValues>
        6.7009150981903076e-01 -5.6875489652156830e-02</leafValues></_>
    <_>
      <internalNodes>
        0 -1 384635 -3.1031272374093533e-03</internalNodes>
      <leafValues>
        3.0959430336952209e-01 -1.1144222319126129e-01</leafValues></_>
    <_>
      <internalNodes>
        0 -1 465724 -3.2629992347210646e-05</internalNodes>
      <leafValues>
        1.8564642965793610e-01 -1.9158518314361572e-01</leafValues></_>
    <_>
      <internalNodes>
        0 -1 434575 -1.2555460445582867e-02</internalNodes>
      <leafValues>
        3.9085525274276733e-01 -8.9255206286907196e-02</leafValues></_>
    <_>
      <internalNodes>
        0 -1 383016 -1.9220755202695727e-03</internalNodes>
      <leafValues>
        2.6776036620140076e-01 -1.4371140301227570e-01</leafValues></_>
    <_>
      <internalNodes>
        0 -1 466073 -5.9476069873198867e-04</internalNodes>
      <leafValues>
        -5.4328334331512451e-01 6.5628103911876678e-02</leafValues></_>
    <_>
      <internalNodes>
        0 -1 39566 -4.0193991735577583e-03</internalNodes>
      <leafValues>
        2.8699451684951782e-01 -1.2745390832424164e-01</leafValues></_>
    <_>
      <internalNodes>
        0 -1 315900 -5.4591704159975052e-02</internalNodes>
      <leafValues>
        -7.2624009847640991e-01 5.4656863212585449e-02</leafValues></_>
    <_>
      <internalNodes>
        0 -1 259643 1.2433300726115704e-02</internalNodes>
      <leafValues>
        -6.7338213324546814e-02 5.9948468208312988e-01</leafValues></_></weakClassifiers></stage7>
</opencv_storage>
