<?xml version="1.0"?>
<opencv_storage>
<stage1>
  <maxWeakCount>12</maxWeakCount>
  <stageThreshold>-1.2561799287796021e+00</stageThreshold>
  <weakClassifiers>
    <_>
      <internalNodes>
        0 -1 44471 -1.6552753746509552e-01</internalNodes>
      <leafValues>
        8.5583382844924927e-01 -2.9420396685600281e-01</leafValues></_>
    <_>
      <internalNodes>
        0 -1 3008 -5.9835672378540039e-01</internalNodes>
      <leafValues>
        8.4109216928482056e-01 -1.4005935192108154e-01</leafValues></_>
    <_>
      <internalNodes>
        0 -1 144159 -5.0843030214309692e-02</internalNodes>
      <leafValues>
        7.8779709339141846e-01 -1.3957946002483368e-01</leafValues></_>
    <_>
      <internalNodes>
        0 -1 199548 3.5595718771219254e-02</internalNodes>
      <leafValues>
        -1.9784110784530640e-01 6.9686514139175415e-01</leafValues></_>
    <_>
      <internalNodes>
        0 -1 78290 -5.8385628461837769e-01</internalNodes>
      <leafValues>
        7.3826116323471069e-01 -7.2296589612960815e-02</leafValues></_>
    <_>
      <internalNodes>
        0 -1 69765 -1.5677107498049736e-02</internalNodes>
      <leafValues>
        7.0312523841857910e-01 -1.8311969935894012e-01</leafValues></_>
    <_>
      <internalNodes>
        0 -1 327188 -2.6403952389955521e-02</internalNodes>
      <leafValues>
        5.6052547693252563e-01 -1.8933476507663727e-01</leafValues></_>
    <_>
      <internalNodes>
        0 -1 378502 -3.5966265946626663e-02</internalNodes>
      <leafValues>
        6.8139898777008057e-01 -1.3933859765529633e-01</leafValues></_>
    <_>
      <internalNodes>
        0 -1 393813 1.8041437491774559e-02</internalNodes>
      <leafValues>
        -1.5737693011760712e-01 6.3069987297058105e-01</leafValues></_>
    <_>
      <internalNodes>
        0 -1 425205 -4.1133407503366470e-03</internalNodes>
      <leafValues>
        4.8206079006195068e-01 -1.9595682621002197e-01</leafValues></_>
    <_>
      <internalNodes>
        0 -1 38978 -6.4717037603259087e-03</internalNodes>
      <leafValues>
        4.5560091733932495e-01 -1.9555906951427460e-01</leafValues></_>
    <_>
      <internalNodes>
        0 -1 317257 -3.8761634379625320e-02</internalNodes>
      <leafValues>
        6.3748782873153687e-01 -1.3959035277366638e-01</leafValues></_></weakClassifiers></stage1>
</opencv_storage>
